digraph Tree {
node [shape=box, style="filled, rounded", color="black", fontname=helvetica] ;
edge [fontname=helvetica] ;
0 [label=<o3 &le; 93.162<br/>gini = 0.925<br/>samples = 49<br/>value = [1, 1, 1, 2, 1, 1, 1, 4, 2, 6, 2, 1, 1, 8<br/>4, 1, 3, 3, 2, 1, 1, 2]>, fillcolor="#f6f6fe"] ;
1 [label=<o3 &le; 63.568<br/>gini = 0.875<br/>samples = 24<br/>value = [1, 1, 1, 2, 1, 1, 1, 4, 2, 6, 2, 1, 1, 0<br/>0, 0, 0, 0, 0, 0, 0, 0]>, fillcolor="#ebfcfa"] ;
0 -> 1 [labeldistance=2.5, labelangle=45, headlabel="True"] ;
2 [label=<o3 &le; 62.048<br/>gini = 0.778<br/>samples = 6<br/>value = [1, 1, 1, 2, 0, 0, 1, 0, 0, 0, 0, 0, 0, 0<br/>0, 0, 0, 0, 0, 0, 0, 0]>, fillcolor="#f2fad7"] ;
1 -> 2 ;
3 [label=<co &le; 325.024<br/>gini = 0.75<br/>samples = 4<br/>value = [1, 1, 1, 0, 0, 0, 1, 0, 0, 0, 0, 0, 0, 0<br/>0, 0, 0, 0, 0, 0, 0, 0]>, fillcolor="#ffffff"] ;
2 -> 3 ;
4 [label=<gini = 0.0<br/>samples = 1<br/>value = [0, 1, 0, 0, 0, 0, 0, 0, 0, 0, 0, 0, 0, 0<br/>0, 0, 0, 0, 0, 0, 0, 0]>, fillcolor="#e5ae39"] ;
3 -> 4 ;
5 [label=<no2 &le; 2.912<br/>gini = 0.667<br/>samples = 3<br/>value = [1, 0, 1, 0, 0, 0, 1, 0, 0, 0, 0, 0, 0, 0<br/>0, 0, 0, 0, 0, 0, 0, 0]>, fillcolor="#ffffff"] ;
3 -> 5 ;
6 [label=<gini = 0.0<br/>samples = 1<br/>value = [0, 0, 1, 0, 0, 0, 0, 0, 0, 0, 0, 0, 0, 0<br/>0, 0, 0, 0, 0, 0, 0, 0]>, fillcolor="#e5dc39"] ;
5 -> 6 ;
7 [label=<so2 &le; 4.58<br/>gini = 0.5<br/>samples = 2<br/>value = [1, 0, 0, 0, 0, 0, 1, 0, 0, 0, 0, 0, 0, 0<br/>0, 0, 0, 0, 0, 0, 0, 0]>, fillcolor="#ffffff"] ;
5 -> 7 ;
8 [label=<gini = 0.0<br/>samples = 1<br/>value = [1, 0, 0, 0, 0, 0, 0, 0, 0, 0, 0, 0, 0, 0<br/>0, 0, 0, 0, 0, 0, 0, 0]>, fillcolor="#e58139"] ;
7 -> 8 ;
9 [label=<gini = 0.0<br/>samples = 1<br/>value = [0, 0, 0, 0, 0, 0, 1, 0, 0, 0, 0, 0, 0, 0<br/>0, 0, 0, 0, 0, 0, 0, 0]>, fillcolor="#39e541"] ;
7 -> 9 ;
10 [label=<gini = 0.0<br/>samples = 2<br/>value = [0, 0, 0, 2, 0, 0, 0, 0, 0, 0, 0, 0, 0, 0<br/>0, 0, 0, 0, 0, 0, 0, 0]>, fillcolor="#bde539"] ;
2 -> 10 ;
11 [label=<o3 &le; 78.857<br/>gini = 0.802<br/>samples = 18<br/>value = [0, 0, 0, 0, 1, 1, 0, 4, 2, 6, 2, 1, 1, 0<br/>0, 0, 0, 0, 0, 0, 0, 0]>, fillcolor="#e3fbf8"] ;
1 -> 11 ;
12 [label=<o3 &le; 76.711<br/>gini = 0.704<br/>samples = 14<br/>value = [0, 0, 0, 0, 1, 1, 0, 4, 2, 6, 0, 0, 0, 0<br/>0, 0, 0, 0, 0, 0, 0, 0]>, fillcolor="#d7faf5"] ;
11 -> 12 ;
13 [label=<o3 &le; 71.615<br/>gini = 0.74<br/>samples = 10<br/>value = [0, 0, 0, 0, 1, 1, 0, 4, 2, 2, 0, 0, 0, 0<br/>0, 0, 0, 0, 0, 0, 0, 0]>, fillcolor="#cef8db"] ;
12 -> 13 ;
14 [label=<pm25 &le; 7.008<br/>gini = 0.625<br/>samples = 4<br/>value = [0, 0, 0, 0, 1, 1, 0, 0, 0, 2, 0, 0, 0, 0<br/>0, 0, 0, 0, 0, 0, 0, 0]>, fillcolor="#bdf6ef"] ;
13 -> 14 ;
15 [label=<no2 &le; 12.135<br/>gini = 0.5<br/>samples = 2<br/>value = [0, 0, 0, 0, 1, 1, 0, 0, 0, 0, 0, 0, 0, 0<br/>0, 0, 0, 0, 0, 0, 0, 0]>, fillcolor="#ffffff"] ;
14 -> 15 ;
16 [label=<gini = 0.0<br/>samples = 1<br/>value = [0, 0, 0, 0, 1, 0, 0, 0, 0, 0, 0, 0, 0, 0<br/>0, 0, 0, 0, 0, 0, 0, 0]>, fillcolor="#8fe539"] ;
15 -> 16 ;
17 [label=<gini = 0.0<br/>samples = 1<br/>value = [0, 0, 0, 0, 0, 1, 0, 0, 0, 0, 0, 0, 0, 0<br/>0, 0, 0, 0, 0, 0, 0, 0]>, fillcolor="#61e539"] ;
15 -> 17 ;
18 [label=<gini = 0.0<br/>samples = 2<br/>value = [0, 0, 0, 0, 0, 0, 0, 0, 0, 2, 0, 0, 0, 0<br/>0, 0, 0, 0, 0, 0, 0, 0]>, fillcolor="#39e5ce"] ;
14 -> 18 ;
19 [label=<o3 &le; 75.191<br/>gini = 0.444<br/>samples = 6<br/>value = [0, 0, 0, 0, 0, 0, 0, 4, 2, 0, 0, 0, 0, 0<br/>0, 0, 0, 0, 0, 0, 0, 0]>, fillcolor="#9cf2b7"] ;
13 -> 19 ;
20 [label=<gini = 0.0<br/>samples = 4<br/>value = [0, 0, 0, 0, 0, 0, 0, 4, 0, 0, 0, 0, 0, 0<br/>0, 0, 0, 0, 0, 0, 0, 0]>, fillcolor="#39e56f"] ;
19 -> 20 ;
21 [label=<gini = 0.0<br/>samples = 2<br/>value = [0, 0, 0, 0, 0, 0, 0, 0, 2, 0, 0, 0, 0, 0<br/>0, 0, 0, 0, 0, 0, 0, 0]>, fillcolor="#39e59d"] ;
19 -> 21 ;
22 [label=<gini = 0.0<br/>samples = 4<br/>value = [0, 0, 0, 0, 0, 0, 0, 0, 0, 4, 0, 0, 0, 0<br/>0, 0, 0, 0, 0, 0, 0, 0]>, fillcolor="#39e5ce"] ;
12 -> 22 ;
23 [label=<o3 &le; 84.901<br/>gini = 0.625<br/>samples = 4<br/>value = [0, 0, 0, 0, 0, 0, 0, 0, 0, 0, 2, 1, 1, 0<br/>0, 0, 0, 0, 0, 0, 0, 0]>, fillcolor="#bdeff6"] ;
11 -> 23 ;
24 [label=<gini = 0.0<br/>samples = 2<br/>value = [0, 0, 0, 0, 0, 0, 0, 0, 0, 0, 2, 0, 0, 0<br/>0, 0, 0, 0, 0, 0, 0, 0]>, fillcolor="#39cee5"] ;
23 -> 24 ;
25 [label=<ts &le; 1590339584.0<br/>gini = 0.5<br/>samples = 2<br/>value = [0, 0, 0, 0, 0, 0, 0, 0, 0, 0, 0, 1, 1, 0<br/>0, 0, 0, 0, 0, 0, 0, 0]>, fillcolor="#ffffff"] ;
23 -> 25 ;
26 [label=<gini = 0.0<br/>samples = 1<br/>value = [0, 0, 0, 0, 0, 0, 0, 0, 0, 0, 0, 0, 1, 0<br/>0, 0, 0, 0, 0, 0, 0, 0]>, fillcolor="#396fe5"] ;
25 -> 26 ;
27 [label=<gini = 0.0<br/>samples = 1<br/>value = [0, 0, 0, 0, 0, 0, 0, 0, 0, 0, 0, 1, 0, 0<br/>0, 0, 0, 0, 0, 0, 0, 0]>, fillcolor="#39a0e5"] ;
25 -> 27 ;
28 [label=<o3 &le; 96.202<br/>gini = 0.826<br/>samples = 25<br/>value = [0, 0, 0, 0, 0, 0, 0, 0, 0, 0, 0, 0, 0, 8<br/>4, 1, 3, 3, 2, 1, 1, 2]>, fillcolor="#d9dbfa"] ;
0 -> 28 [labeldistance=2.5, labelangle=-45, headlabel="False"] ;
29 [label=<gini = 0.0<br/>samples = 8<br/>value = [0, 0, 0, 0, 0, 0, 0, 0, 0, 0, 0, 0, 0, 8<br/>0, 0, 0, 0, 0, 0, 0, 0]>, fillcolor="#3941e5"] ;
28 -> 29 ;
30 [label=<o3 &le; 99.063<br/>gini = 0.844<br/>samples = 17<br/>value = [0, 0, 0, 0, 0, 0, 0, 0, 0, 0, 0, 0, 0, 0<br/>4, 1, 3, 3, 2, 1, 1, 2]>, fillcolor="#f4f1fd"] ;
28 -> 30 ;
31 [label=<gini = 0.0<br/>samples = 4<br/>value = [0, 0, 0, 0, 0, 0, 0, 0, 0, 0, 0, 0, 0, 0<br/>4, 0, 0, 0, 0, 0, 0, 0]>, fillcolor="#6139e5"] ;
30 -> 31 ;
32 [label=<o3 &le; 102.996<br/>gini = 0.828<br/>samples = 13<br/>value = [0, 0, 0, 0, 0, 0, 0, 0, 0, 0, 0, 0, 0, 0<br/>0, 1, 3, 3, 2, 1, 1, 2]>, fillcolor="#ffffff"] ;
30 -> 32 ;
33 [label=<pm10 &le; 2.303<br/>gini = 0.375<br/>samples = 4<br/>value = [0, 0, 0, 0, 0, 0, 0, 0, 0, 0, 0, 0, 0, 0<br/>0, 1, 3, 0, 0, 0, 0, 0]>, fillcolor="#d37bee"] ;
32 -> 33 ;
34 [label=<gini = 0.0<br/>samples = 1<br/>value = [0, 0, 0, 0, 0, 0, 0, 0, 0, 0, 0, 0, 0, 0<br/>0, 1, 0, 0, 0, 0, 0, 0]>, fillcolor="#8f39e5"] ;
33 -> 34 ;
35 [label=<gini = 0.0<br/>samples = 3<br/>value = [0, 0, 0, 0, 0, 0, 0, 0, 0, 0, 0, 0, 0, 0<br/>0, 0, 3, 0, 0, 0, 0, 0]>, fillcolor="#bd39e5"] ;
33 -> 35 ;
36 [label=<o3 &le; 105.143<br/>gini = 0.765<br/>samples = 9<br/>value = [0, 0, 0, 0, 0, 0, 0, 0, 0, 0, 0, 0, 0, 0<br/>0, 0, 0, 3, 2, 1, 1, 2]>, fillcolor="#fbe3fa"] ;
32 -> 36 ;
37 [label=<gini = 0.0<br/>samples = 3<br/>value = [0, 0, 0, 0, 0, 0, 0, 0, 0, 0, 0, 0, 0, 0<br/>0, 0, 0, 3, 0, 0, 0, 0]>, fillcolor="#e539dc"] ;
36 -> 37 ;
38 [label=<ts &le; 1590406144.0<br/>gini = 0.722<br/>samples = 6<br/>value = [0, 0, 0, 0, 0, 0, 0, 0, 0, 0, 0, 0, 0, 0<br/>0, 0, 0, 0, 2, 1, 1, 2]>, fillcolor="#ffffff"] ;
36 -> 38 ;
39 [label=<gini = 0.0<br/>samples = 2<br/>value = [0, 0, 0, 0, 0, 0, 0, 0, 0, 0, 0, 0, 0, 0<br/>0, 0, 0, 0, 2, 0, 0, 0]>, fillcolor="#e539ae"] ;
38 -> 39 ;
40 [label=<o3 &le; 111.49<br/>gini = 0.625<br/>samples = 4<br/>value = [0, 0, 0, 0, 0, 0, 0, 0, 0, 0, 0, 0, 0, 0<br/>0, 0, 0, 0, 0, 1, 1, 2]>, fillcolor="#f6c5bd"] ;
38 -> 40 ;
41 [label=<ts &le; 1590409792.0<br/>gini = 0.5<br/>samples = 2<br/>value = [0, 0, 0, 0, 0, 0, 0, 0, 0, 0, 0, 0, 0, 0<br/>0, 0, 0, 0, 0, 1, 1, 0]>, fillcolor="#ffffff"] ;
40 -> 41 ;
42 [label=<gini = 0.0<br/>samples = 1<br/>value = [0, 0, 0, 0, 0, 0, 0, 0, 0, 0, 0, 0, 0, 0<br/>0, 0, 0, 0, 0, 1, 0, 0]>, fillcolor="#e53981"] ;
41 -> 42 ;
43 [label=<gini = 0.0<br/>samples = 1<br/>value = [0, 0, 0, 0, 0, 0, 0, 0, 0, 0, 0, 0, 0, 0<br/>0, 0, 0, 0, 0, 0, 1, 0]>, fillcolor="#e53950"] ;
41 -> 43 ;
44 [label=<gini = 0.0<br/>samples = 2<br/>value = [0, 0, 0, 0, 0, 0, 0, 0, 0, 0, 0, 0, 0, 0<br/>0, 0, 0, 0, 0, 0, 0, 2]>, fillcolor="#e55039"] ;
40 -> 44 ;
}